term 1.15232 -0.845922 1.05826 2.80927 -0.744104 -0.08687 0.310451 -0.326166 -0.344924 0.161955 -1.33858 1.54451 -0.534139 0.130822 0.588707 -1.16418 0.689894 0.0776119 -0.831172 1.45316 0.619799 0.148532 0.462532 0.0432808 0.954565 -0.205127 -1.35717 0.516513 -0.340327 -0.163508 0.781722 1.09843 -1.95763 2.12122 1.58555 -0.63462 0.0934024 -1.2728 -2.2748 -1.54884 -0.735708 -0.720374 0.483738 0.835899 -0.152322 -2.3429 0.682117 0.211368 1.92303 -0.155798 1.22278 -0.556248 1.4054 -0.936319 1.02549 1.70993 -0.475597 1.93539 -0.313268 0.187403 -0.0745293 0.680837 0.518829 -0.928226 0.115273 -0.317574 1.93684 -1.41611 0.191888 -0.438585 0.0358617 -0.266271 0.934555 -0.630148 -1.25492 0.554345 -0.431855 0.179142 0.735514 -0.0637343 0.0831422 -1.7507 0.785471 -0.488049 -0.333619 -0.933341 -0.199966 -1.94065 1.09745 -0.932656 -0.56601 -0.367504 0.951967 0.0601265 0.841026 -0.627717 -0.102472 0.990367 -0.110134 1.42338 0.340926 0.391485 1.40079 0.702996 0.512787 0.0388547 -0.0317449 0.53105 0.432442 -0.29793 -1.90585 -0.760287 1.33283 0.0237545 0.183076 1.29903 -0.599653 0.0989514 -0.85782 0.744123 -1.94451 -2.43014 1.28658 -0.00267074 1.3142 -1.36794 -0.438354 -1.48905
abuse -0.368024 1.39038 -0.996726 2.54485 0.361961 1.07664 -0.606246 -0.160553 0.192739 -0.0373175 0.344026 -0.863895 0.669808 1.99526 -0.822386 -0.289475 -0.0749367 1.29633 -1.3228 0.44148 1.76061 0.46097 0.405279 0.3443 -0.193817 0.318233 -1.58541 -0.308433 -0.885771 -1.7482 -0.676966 0.0987295 0.467984 2.57341 1.2731 0.757022 -0.0442539 0.500477 -1.84359 -1.30919 0.889908 -0.0183631 -1.62988 1.13758 0.623608 -0.49032 -0.234796 -0.91587 0.137488 0.31756 -1.51739 -1.22701 0.453302 -0.690682 0.222915 -0.32033 0.527569 2.07594 0.852381 0.285391 0.595858 0.555586 0.130068 -0.173958 1.42587 0.930019 2.27648 0.84397 0.556598 0.2075 -0.246604 -0.132846 -0.543145 0.739126 -2.40245 1.17572 -0.0253227 -0.628668 -0.782897 -1.37117 0.735855 -0.0834836 1.08074 0.795036 0.574265 -0.639375 -0.0604531 -0.297494 1.00327 0.363983 -1.9331 0.435889 0.258114 -0.0950584 0.412717 -1.1764 -1.59745 -0.567143 0.167072 -1.25174 -0.275684 -0.407633 1.25108 0.744631 -1.36538 0.897381 -1.50787 0.828278 2.0126 0.832517 -1.27268 0.652599 0.498979 -2.01042 -0.0777373 -1.1953 0.105424 0.172227 -0.662162 0.483602 -0.983582 -1.47086 -0.446851 -0.71684 0.812133 -0.044892 -0.14929 -1.73136
used -0.623696 -0.317965 1.32203 1.06804 1.77008 0.284609 -0.0659609 -0.670266 -0.150213 0.194989 -0.507001 -1.28649 1.67156 -0.650457 -0.129744 0.686693 -0.093845 -0.142192 0.0640499 0.334431 -0.768055 0.210588 0.15749 -0.0208297 0.589583 1.78742 -1.66865 1.60703 1.92942 -1.56501 -0.0347871 0.842559 1.02552 0.607181 0.675902 0.730337 0.0230688 -0.194668 0.738782 -1.47286 -0.285936 1.83632 1.20395 2.10937 -0.467043 -0.278759 -1.05154 -0.176729 -1.56286 -0.987707 -1.5228 -1.67937 0.0148889 0.26975 0.736156 -1.03433 -1.27113 1.29001 -1.18612 1.93248 0.426171 1.52657 0.04651 -2.1039 0.349282 -0.251139 1.43163 0.0684411 -1.00117 -0.300189 -0.584219 -0.107353 0.219635 -0.0022221 -0.638508 0.327612 -1.33483 0.0618695 0.408302 -0.729702 0.638991 1.12277 0.367801 -1.5239 0.295124 -1.31518 -0.252846 -1.06237 1.37306 -0.79734 0.59407 -1.1508 -1.55959 0.708591 -1.30964 0.68858 -0.161226 -0.984247 0.729379 0.699561 -0.163243 0.460905 -1.12983 0.757598 0.341516 1.04886 0.386405 -0.488097 0.22208 1.21663 -0.370293 0.135693 0.632681 -0.820229 0.99091 0.547261 -0.154981 -1.21826 0.154436 1.28812 0.826318 -2.09842 1.71057 -1.17252 1.16965 -0.19478 0.220506 -1.37662
early -1.80941 0.00684375 0.199309 0.340427 -0.028004 0.119784 1.54997 0.223878 -1.32168 -1.15251 -0.206102 -0.104958 -1.85591 -0.254167 -0.711929 0.390628 -0.572131 -0.21524 -1.5845 0.106418 0.512157 0.129733 -1.86404 0.479537 -0.0422599 -0.928944 0.679995 -0.644991 -0.700572 0.497918 0.558141 -0.684548 -0.268701 0.0828216 0.187405 1.84938 -1.83814 0.63379 -0.418028 -0.115469 -0.844905 -0.504127 -0.734815 1.38964 1.47461 -0.266281 -0.419299 -1.06258 0.421518 -1.46215 -0.394354 -0.856409 1.95985 0.692058 0.796887 -0.40545 0.198239 1.2126 -0.815688 -0.455985 0.115306 0.119591 -0.291051 -0.0905515 -0.163487 -1.8076 1.69128 -1.14598 -0.966494 -0.245966 0.609102 -0.0995733 -0.616318 -0.964416 -2.24047 0.0844303 -1.72199 0.12309 1.03461 1.52573 0.843589 0.425227 0.899229 -0.0874775 1.1278 -2.1293 0.0229973 -1.16437 0.0509086 -1.13574 -0.504532 -1.37986 0.209617 -1.76199 -1.64211 -0.0247126 -0.235513 1.10049 0.457204 0.500222 -0.618487 1.19725 1.72148 0.638436 -0.363568 -0.392828 -0.464545 1.44968 0.442168 0.0850009 -0.645421 -0.412858 0.479187 -0.116528 -0.514676 1.37022 0.275986 -1.50624 1.15604 0.0342671 1.00553 -0.423996 0.810515 0.062565 0.827481 -1.90334 -2.44375 -0.101244
working -0.473523 0.550222 -0.391118 1.21936 0.682296 1.16625 -0.918146 0.181354 -1.4737 -1.52456 0.238129 1.10796 -1.04545 -0.0130616 -0.457592 -1.58573 0.0510154 -0.808049 1.13347 0.862514 1.22013 -0.116805 0.688333 -1.09244 -1.40742 -0.506731 -0.854714 -0.448647 -1.1422 -1.95639 -0.165199 -0.311181 -1.27129 1.56224 0.766462 -0.0696906 -1.17187 1.44978 -0.683426 0.546336 -1.16811 0.972779 -0.191202 -0.785004 0.4999 -0.892352 0.234398 -0.838379 2.01312 -0.125518 -0.856881 -1.19544 0.757595 -0.444069 -1.28052 1.2693 -1.91478 1.59826 -1.35763 -1.7074 0.887087 -1.19138 0.18147 -1.26651 -0.0395433 -1.00107 2.34108 0.0421168 -0.169239 0.543396 -1.28473 -0.564298 1.50859 -1.29093 0.361502 1.62461 0.622914 1.29726 -0.582467 -0.343556 -0.619027 -0.541545 0.78299 -0.137547 -0.476738 -1.69927 0.804043 1.0423 0.0660905 0.337669 -1.52752 -0.641136 1.07995 -0.308685 -0.00906891 -1.33943 0.0566596 -1.2783 -0.730245 0.639171 -0.364263 0.562533 0.734624 -1.0067 -0.274295 0.982219 -0.249979 1.71854 0.997554 0.234746 -0.37662 -1.3458 -0.231314 -1.17135 -1.39626 0.551521 -0.301468 1.16221 -0.038369 -0.582628 0.491849 -0.564398 0.626989 -0.477645 -0.725316 1.47597 -1.20879 0.0553742
class -0.377404 -0.724592 0.841008 1.65565 0.59172 0.136781 -0.804417 1.1583 -0.282466 -2.07071 -0.930144 -0.242759 -1.06013 1.64514 0.188202 -1.79548 -0.255649 -0.25645 -0.817613 -0.322235 1.3608 0.399726 -1.10189 -1.43669 -0.458461 0.561528 1.13348 -1.17697 0.255444 -0.184152 -1.40549 -0.0163921 -0.132015 0.35193 1.14337 1.33009 -0.00984377 0.479882 0.577289 0.252154 1.0203 1.51458 -0.855481 -1.26738 0.272221 -1.60337 -0.435976 -1.80198 0.870603 0.131984 0.535505 -1.33184 1.96884 1.25981 0.549321 -0.624322 0.5905 1.22637 0.475664 -0.021817 0.374475 0.59056 0.434683 -0.0656714 0.703773 -1.2508 0.591506 0.249177 -1.39231 0.585899 -0.439737 -0.0825504 -1.02108 0.787992 -1.14816 -0.339128 -1.72853 -0.688967 0.432011 -1.17621 0.534232 -0.668401 1.79058 -1.27276 -0.0895525 -0.864467 -0.127411 0.681643 1.10607 -0.823399 -1.85982 0.113805 -0.0156553 1.57629 0.460483 0.329281 0.153603 1.53489 -0.659739 1.4256 -0.776406 -0.917267 0.0724547 0.910464 -0.288131 -1.29973 -0.0459242 1.29737 1.13668 1.52148 -0.528439 -1.14514 -0.0383047 -1.04456 -0.136314 -0.638095 0.237672 -1.46198 0.163403 -0.121691 -0.454018 -1.455 -0.946138 0.612288 -0.22203 -0.618645 -0.386704 -0.969686
including -0.234014 0.0717815 0.636948 0.977471 0.593103 1.38572 0.884956 -1.15482 0.395426 1.7102 -0.263635 -0.851296 -0.693497 0.580797 0.888335 0.0405683 0.106234 0.574686 -1.43344 -0.0504673 -0.0676508 0.449923 -0.604607 -0.0754977 0.336834 -0.158785 -0.841877 -1.46099 0.514819 -0.905079 -1.28668 1.55772 0.306711 1.4199 -0.0995348 0.530426 1.09269 0.201404 -1.39571 -0.307742 1.03462 -0.136067 0.434216 1.46253 0.601134 -1.91523 0.36478 -1.15001 -0.137419 -0.877695 -0.674473 -1.71514 1.24787 2.0108 0.261631 1.34367 -0.747952 0.99402 -0.127688 -1.86822 1.21687 -0.671694 -1.09608 -0.809074 -0.78292 0.241037 -0.345357 -0.648335 -0.793667 0.836238 2.08853 1.03692 0.385632 0.525229 0.431555 0.0715687 -0.267585 -0.0246975 0.513675 -0.6627 -0.93209 -1.39719 0.498258 -0.153205 0.885887 -1.30483 -1.07952 -0.659744 1.28554 0.881982 -1.21645 -1.78596 0.0276616 0.498248 -1.34254 -0.0611793 0.76236 0.431126 1.34574 0.295268 1.78207 0.49273 -1.36337 -0.484858 0.715573 1.79895 0.0997801 -0.994643 0.730312 -1.25453 -0.273404 -0.0656686 1.56434 -0.958745 0.92418 -1.64772 -2.06301 -0.937982 -0.100682 -0.658891 -0.516232 -0.356492 1.14378 -0.259768 -0.503703 -2.14951 -1.06563 -0.660805
english -1.62935 0.53841 -0.207559 2.0529 1.00128 0.58083 -0.580287 -0.558175 -1.34832 -1.1912 0.277146 -0.655401 1.66957 0.667361 0.0940776 0.444424 -0.227016 -0.380424 -1.16391 0.780057 0.847676 -1.0543 -1.27645 -0.319736 -0.584806 -0.550431 -0.315882 1.24244 -0.705609 -1.38458 1.51904 -0.494424 -1.23003 0.292005 -0.584551 0.79189 0.582603 1.97445 -0.694546 -0.353367 0.994417 -0.963419 0.600349 1.00795 2.07407 -1.97417 -2.12641 1.47374 0.741085 -1.43236 0.323844 -0.666041 1.41271 -0.472147 -0.143383 -0.125565 -0.379885 0.0967751 -0.21241 -1.05111 0.669435 0.173107 -0.582024 0.0490978 1.41006 -0.0519243 0.607098 0.442042 -0.843376 0.424909 -1.01314 -1.14547 0.0680103 -0.227834 -1.169 0.841132 -0.531194 1.44597 0.424639 0.228199 1.42992 0.245806 0.458873 1.13046 0.693627 -0.404183 -0.465832 -1.92636 0.316815 -0.66546 -0.333667 -0.511094 -0.730011 0.797625 -0.0294939 1.06426 -0.00410131 -0.371835 1.54119 -0.195894 0.382576 0.933497 -1.13856 0.330046 -0.216365 1.40491 0.708777 -0.0847883 1.57943 0.868546 -1.65136 0.164726 1.4916 -0.131444 0.356773 -1.15207 -0.673123 0.247877 -0.465457 1.41673 -0.737532 -0.020369 -0.134094 0.366801 0.851363 -1.18732 -0.370039 -1.44641
revolution 0.617707 -0.22092 -0.0222607 2.18174 -0.729312 -0.518988 0.19006 0.12379 -1.1238 0.0439756 -0.777334 1.46478 0.680295 -1.69951 -1.11914 0.00100929 1.15829 0.313343 -1.39972 -0.170719 0.219995 0.327989 -0.55026 -0.0192011 -0.84811 0.371505 0.323905 -0.714634 0.243867 -0.0291714 -0.0315345 0.321899 -2.22103 0.608115 1.17779 0.46095 0.943265 0.334826 1.22743 0.770677 0.463021 0.166498 -1.19839 0.205019 1.79219 -0.759016 -1.05461 -0.0996134 0.0146586 -1.49957 0.0307626 0.979282 1.18148 0.75895 0.862636 -0.164383 0.52503 1.63177 -0.33677 0.474653 1.59843 -0.205483 -0.797717 -1.27116 -0.159601 -0.117765 0.150693 -1.37708 0.829663 -0.569521 -1.32864 1.47639 0.811228 -0.185467 -1.48077 -1.03495 0.302929 0.979697 -0.0114444 0.533694 1.11319 1.3104 1.0436 1.30806 -0.495386 1.10114 -0.501345 0.835298 2.31798 -1.10779 -0.244505 -0.960034 0.566921 -0.373135 0.59339 -0.76287 -1.01783 0.35593 1.1703 0.226615 1.5477 -1.11045 1.37422 -0.0714045 0.392084 0.208409 -0.934796 -0.297062 0.798386 -0.512943 1.24428 -0.630515 0.359499 -0.939888 0.169603 1.42431 -1.37879 -0.361864 0.625703 1.31115 -0.992636 -0.255258 -1.18957 -1.67539 0.445475 1.02153 -0.548651 -0.648669
