anarchism 0.178675 0.137101 -0.430989 1.8991 0.898132 0.364538 1.44846 -0.322595 -0.0694673 -0.18016 -0.31126 0.333391 -0.485697 0.18858 -0.429027 0.201981 -0.149489 -0.24245 -0.817189 1.22869 0.0602786 -0.162771 -1.58676 -0.204737 -1.88514 0.881358 -0.930334 -0.954268 1.3284 -0.797073 -0.7541 1.18218 -1.67413 0.167991 1.24337 1.63825 -0.389171 1.64072 0.161787 0.214845 -0.109138 1.57996 0.822443 0.780016 1.07918 -2.58585 -1.35645 -0.286076 0.6671 -0.968091 -0.688597 -1.21304 0.526433 1.01045 -1.17383 -0.103144 0.764138 2.22378 -0.187979 0.0220441 0.219783 0.371163 0.324967 -0.7661 -0.610664 0.140982 1.61835 -1.94821 -0.903202 -1.28396 0.522522 -0.611632 0.98469 -1.08071 -0.959714 0.593545 -0.193904 0.578548 0.716153 -0.821274 0.329569 0.432553 0.606241 0.167626 0.773451 0.58629 0.672244 0.496125 -0.471779 -1.24763 -1.47268 -1.23657 0.924477 1.08493 0.919142 -1.04955 0.937823 -1.93781 -0.418945 -0.720067 0.789134 -1.18177 0.166938 1.20626 -1.09961 0.486431 -0.452859 0.499706 0.812108 0.783688 0.0158308 0.0856826 1.03754 -2.19378 -0.557882 0.193569 -1.37266 -1.11323 0.720523 0.776721 -2.14938 -1.82479 1.52735 -0.973876 -0.34016 0.147948 -0.432235 -0.468271
originated -1.25614 0.253639 1.0366 0.562666 0.766004 1.83854 -0.8904 -1.18352 0.534481 0.130549 -1.27689 0.24221 1.00385 1.77777 0.795727 -0.862333 -0.925807 0.551127 -1.52218 -0.350678 0.979225 -0.0671653 -0.0254765 -1.13411 -1.22195 0.503316 -1.11411 0.11509 0.889711 -0.486257 0.063051 1.70901 -1.8709 1.96777 -0.465088 1.39409 1.86422 0.456988 -0.186884 -0.829818 0.577238 -0.100677 -0.025739 -0.666744 1.20502 -0.787739 -1.06613 -0.20964 1.64126 -0.557969 -0.173828 -1.04206 0.782398 -0.26197 0.0836264 0.380179 -1.67707 1.52773 -0.453866 -1.71622 1.20031 -1.42601 -0.93941 -1.00352 1.54248 0.154435 1.36062 0.51595 -0.275948 -1.3118 1.29271 -0.227424 -1.32515 0.854657 -0.898849 0.650715 -0.140632 0.110118 0.218025 0.0395812 -0.400834 0.576887 0.132927 0.892756 -0.306901 -0.930172 1.6016 0.899284 1.11481 -0.0836522 -1.81673 -0.0744313 -0.238396 0.342249 -0.632623 -0.844901 -1.63644 -1.20795 -0.487852 -0.344637 0.313809 0.910292 0.466073 0.0945536 -0.214028 -1.32459 0.0262842 0.581197 1.86423 -0.885707 0.541885 0.867373 1.21529 0.600381 0.587866 1.46534 1.32698 -0.580574 -0.640138 2.27912 0.850856 -0.665501 0.92041 -0.935481 -1.15349 0.183235 -1.06846 0.593151
as -0.518124 0.453522 0.848834 2.01255 -0.343999 0.572067 0.0361936 0.0789147 -1.60517 0.377703 -1.60097 -1.31398 0.04879 -0.159155 0.999073 0.180357 -0.301843 0.323471 0.41664 -0.383823 0.081288 0.69749 -0.924662 -1.36576 0.208611 -0.443467 0.0496944 -0.115618 -0.0640779 -1.49559 0.680237 0.494531 0.954336 1.89361 1.18167 0.390903 -0.849251 1.96935 -1.96762 0.215753 1.1657 -0.821837 1.26636 0.457398 0.116134 -0.552492 -0.106666 0.779637 0.789164 0.761021 -0.459187 -0.424392 1.53598 0.0262474 -0.269145 -0.976468 -0.356537 1.87021 0.416106 0.444909 0.451734 -0.155915 1.26053 0.196236 -1.05554 -1.91174 1.85877 0.554176 -1.5746 -0.526191 -0.48112 0.666579 1.49132 -0.505576 -2.16502 -0.187954 -1.30207 -0.193801 0.584187 -1.16803 1.38287 0.954639 0.275628 -1.27514 0.247986 -1.6518 1.09465 -0.852366 0.754264 -0.522887 -0.00875603 -1.33083 0.45164 0.78884 -0.753519 0.693535 -0.479459 1.31757 1.29825 -1.50434 -0.811608 -0.849575 1.3311 0.840173 -0.311953 1.29336 -0.415718 1.30143 1.20035 0.576614 0.792971 0.337269 0.120681 -0.0602485 1.53271 -0.994877 -1.74771 0.782041 0.071387 0.0596074 1.21027 -0.231944 -0.389372 -1.1481 -1.00033 -0.493528 0.944819 -0.171522
a -0.311067 0.703704 1.63208 0.297561 0.963414 0.791985 0.22357 -0.18676 0.647257 0.21319 -0.168714 0.312018 -1.15012 -0.500449 -0.228917 -0.854927 -0.675725 0.428902 -0.133264 1.26446 0.60083 -0.141908 0.790699 -1.61363 0.345972 -1.13121 -0.533517 1.59728 -0.37121 0.379493 1.06181 -0.334111 -0.265925 1.06396 0.92993 0.28383 0.569388 0.200384 -1.09203 -1.0728 -0.0461274 -0.424497 -1.36298 1.13954 0.253398 -1.39741 -0.42243 0.118597 0.19908 -0.817814 -1.6153 -0.0513284 1.60538 -0.672905 1.53885 0.608212 -0.582512 0.22805 -1.16624 -1.63196 0.818867 -0.982914 0.300275 0.601892 1.76932 -1.98624 0.736129 -1.34108 -2.17902 -0.547807 0.40716 0.890804 1.46218 0.770482 -0.17771 0.434549 0.758807 0.873573 0.955833 1.24287 -0.0911912 0.941874 1.05257 0.00316659 -0.308626 -1.49684 1.37844 0.318465 1.18321 0.602734 -1.12969 -0.408737 -0.43909 0.778427 0.567067 -0.170973 0.630763 0.526589 -0.791829 0.265624 -0.394449 0.821012 0.259808 0.353185 0.777584 0.297371 -0.206464 1.97902 -0.786696 0.659292 -0.233671 1.1905 0.937875 0.44051 -0.440183 -0.167691 -1.2241 1.54871 1.21396 1.8614 -0.642954 0.0269724 0.959219 -1.14808 1.36415 -1.32983 -1.01469 -1.13689
term 1.15232 -0.845922 1.05826 2.80927 -0.744104 -0.08687 0.310451 -0.326166 -0.344924 0.161955 -1.33858 1.54451 -0.534139 0.130822 0.588707 -1.16418 0.689894 0.0776119 -0.831172 1.45316 0.619799 0.148532 0.462532 0.0432808 0.954565 -0.205127 -1.35717 0.516513 -0.340327 -0.163508 0.781722 1.09843 -1.95763 2.12122 1.58555 -0.63462 0.0934024 -1.2728 -2.2748 -1.54884 -0.735708 -0.720374 0.483738 0.835899 -0.152322 -2.3429 0.682117 0.211368 1.92303 -0.155798 1.22278 -0.556248 1.4054 -0.936319 1.02549 1.70993 -0.475597 1.93539 -0.313268 0.187403 -0.0745293 0.680837 0.518829 -0.928226 0.115273 -0.317574 1.93684 -1.41611 0.191888 -0.438585 0.0358617 -0.266271 0.934555 -0.630148 -1.25492 0.554345 -0.431855 0.179142 0.735514 -0.0637343 0.0831422 -1.7507 0.785471 -0.488049 -0.333619 -0.933341 -0.199966 -1.94065 1.09745 -0.932656 -0.56601 -0.367504 0.951967 0.0601265 0.841026 -0.627717 -0.102472 0.990367 -0.110134 1.42338 0.340926 0.391485 1.40079 0.702996 0.512787 0.0388547 -0.0317449 0.53105 0.432442 -0.29793 -1.90585 -0.760287 1.33283 0.0237545 0.183076 1.29903 -0.599653 0.0989514 -0.85782 0.744123 -1.94451 -2.43014 1.28658 -0.00267074 1.3142 -1.36794 -0.438354 -1.48905
of -0.587039 -0.19281 -0.24103 0.484172 1.60501 1.59047 0.0565455 -1.16258 0.995847 -0.933968 -0.941064 0.217952 -1.25532 -1.8276 -1.27828 0.747703 -0.261268 -0.258526 -2.16617 1.47538 -0.60072 -0.929839 0.108101 -0.179381 1.01979 0.834149 -0.34152 -0.13034 -0.397445 -1.40331 0.323521 -0.339653 -1.44584 0.818281 -0.4246 0.977709 0.625836 0.259186 -0.723905 0.048471 0.123099 0.587158 -0.288824 1.31876 0.467228 -1.65595 -0.0538146 -1.81455 0.415608 0.37559 -0.92155 -0.766719 2.73293 0.720312 0.883439 -0.00477949 -0.848059 1.38618 -1.49866 -1.16225 1.47227 0.394026 0.58575 -0.660497 0.35916 -1.22295 1.99643 0.540381 0.127661 1.16544 0.300854 -0.414009 -0.677382 0.335542 -0.354874 -1.08798 -1.0192 0.144835 1.39439 -0.156589 -0.885943 -0.691773 -0.346219 -1.04317 -0.189606 -1.8208 -0.971263 -0.711191 0.0582867 -1.2669 -1.42411 -1.5341 0.76933 0.370987 -1.00447 -0.998665 0.062083 -0.930241 0.0425118 0.439832 -0.280158 1.01261 -0.0986325 0.333468 0.707154 0.494126 0.5491 1.7728 0.224969 0.102757 1.16614 0.956178 0.803999 -2.02629 -0.0853275 0.00332785 0.53223 0.123598 -0.413995 1.76351 -1.87808 0.325436 -0.194881 0.387067 0.267263 -0.906235 -1.78935 -0.803179
abuse -0.368024 1.39038 -0.996726 2.54485 0.361961 1.07664 -0.606246 -0.160553 0.192739 -0.0373175 0.344026 -0.863895 0.669808 1.99526 -0.822386 -0.289475 -0.0749367 1.29633 -1.3228 0.44148 1.76061 0.46097 0.405279 0.3443 -0.193817 0.318233 -1.58541 -0.308433 -0.885771 -1.7482 -0.676966 0.0987295 0.467984 2.57341 1.2731 0.757022 -0.0442539 0.500477 -1.84359 -1.30919 0.889908 -0.0183631 -1.62988 1.13758 0.623608 -0.49032 -0.234796 -0.91587 0.137488 0.31756 -1.51739 -1.22701 0.453302 -0.690682 0.222915 -0.32033 0.527569 2.07594 0.852381 0.285391 0.595858 0.555586 0.130068 -0.173958 1.42587 0.930019 2.27648 0.84397 0.556598 0.2075 -0.246604 -0.132846 -0.543145 0.739126 -2.40245 1.17572 -0.0253227 -0.628668 -0.782897 -1.37117 0.735855 -0.0834836 1.08074 0.795036 0.574265 -0.639375 -0.0604531 -0.297494 1.00327 0.363983 -1.9331 0.435889 0.258114 -0.0950584 0.412717 -1.1764 -1.59745 -0.567143 0.167072 -1.25174 -0.275684 -0.407633 1.25108 0.744631 -1.36538 0.897381 -1.50787 0.828278 2.0126 0.832517 -1.27268 0.652599 0.498979 -2.01042 -0.0777373 -1.1953 0.105424 0.172227 -0.662162 0.483602 -0.983582 -1.47086 -0.446851 -0.71684 0.812133 -0.044892 -0.14929 -1.73136
first -1.39121 0.476627 -0.520078 0.407277 0.616426 1.79731 0.382161 -0.193337 0.340758 1.09242 -1.30279 0.47367 -0.928074 -1.82426 0.436873 0.348998 -1.19686 -0.639015 -0.216397 0.818945 1.56987 0.604118 0.095973 0.330818 0.699742 -0.502924 -1.97295 0.756706 0.0451686 0.294701 -0.939461 0.576471 -0.270912 1.9396 1.9199 -0.916952 -0.452833 1.86509 0.231502 -0.765862 -0.0450052 0.0487884 0.274632 0.515324 1.79461 -0.204937 -1.2962 0.945801 1.4183 -1.07628 -1.17786 -0.0899161 2.37839 -0.0870886 0.537109 -0.990517 -0.242933 1.07159 -0.923141 1.24484 1.12153 -0.568009 -1.64939 -1.99438 0.878877 -1.62438 2.19052 -0.24214 -0.375131 0.0832035 -0.222617 -0.465098 -1.24313 -0.909192 -1.14102 -0.209291 -2.17705 0.0315984 0.197262 0.00603318 -0.146406 -1.08788 1.61282 1.50849 1.81601 -0.128197 -0.536569 0.114113 1.99447 -0.750506 -0.572734 1.12469 -0.0361269 -0.138144 0.0142008 1.17205 0.53369 1.16121 -0.46196 -0.0160356 -0.221971 -0.478155 -0.342511 1.63354 0.831902 -0.999481 0.826255 1.70848 -0.242152 0.795778 -1.12936 0.416789 1.2241 -0.536849 0.524346 -2.23682 -1.17402 -2.11569 0.566105 0.294115 -1.02627 0.17707 0.231258 1.12482 0.312166 -1.74782 0.0687388 -1.57076
used -0.623696 -0.317965 1.32203 1.06804 1.77008 0.284609 -0.0659609 -0.670266 -0.150213 0.194989 -0.507001 -1.28649 1.67156 -0.650457 -0.129744 0.686693 -0.093845 -0.142192 0.0640499 0.334431 -0.768055 0.210588 0.15749 -0.0208297 0.589583 1.78742 -1.66865 1.60703 1.92942 -1.56501 -0.0347871 0.842559 1.02552 0.607181 0.675902 0.730337 0.0230688 -0.194668 0.738782 -1.47286 -0.285936 1.83632 1.20395 2.10937 -0.467043 -0.278759 -1.05154 -0.176729 -1.56286 -0.987707 -1.5228 -1.67937 0.0148889 0.26975 0.736156 -1.03433 -1.27113 1.29001 -1.18612 1.93248 0.426171 1.52657 0.04651 -2.1039 0.349282 -0.251139 1.43163 0.0684411 -1.00117 -0.300189 -0.584219 -0.107353 0.219635 -0.0022221 -0.638508 0.327612 -1.33483 0.0618695 0.408302 -0.729702 0.638991 1.12277 0.367801 -1.5239 0.295124 -1.31518 -0.252846 -1.06237 1.37306 -0.79734 0.59407 -1.1508 -1.55959 0.708591 -1.30964 0.68858 -0.161226 -0.984247 0.729379 0.699561 -0.163243 0.460905 -1.12983 0.757598 0.341516 1.04886 0.386405 -0.488097 0.22208 1.21663 -0.370293 0.135693 0.632681 -0.820229 0.99091 0.547261 -0.154981 -1.21826 0.154436 1.28812 0.826318 -2.09842 1.71057 -1.17252 1.16965 -0.19478 0.220506 -1.37662
against -1.04879 -0.480017 -0.89509 0.289077 -0.101055 -0.160275 -0.365989 0.146407 -0.562148 1.50248 0.888542 0.615543 0.106489 -0.143386 -0.462814 0.315656 -0.153684 0.49294 -1.92551 0.671271 -0.147456 -0.324983 -1.58562 -0.105176 0.178901 0.210469 0.822838 1.68421 -0.0476155 -1.80857 1.15834 0.865898 -1.55811 1.84171 0.438911 0.546108 -0.164301 -0.173942 -0.512541 -0.369153 0.563115 -1.08222 -0.201505 0.831728 0.487922 -1.51958 -1.41872 -0.808638 -0.606073 1.26237 0.252674 -0.684709 1.55499 0.513398 0.450839 1.35501 0.0599095 2.22874 -0.475687 0.493953 0.629938 -0.803583 -0.292789 -0.992486 2.13617 0.103802 1.62029 -1.01293 -2.09293 -1.108 -0.158612 -1.49614 0.8564 -0.880199 -0.561886 -0.206956 -1.10185 1.13299 1.46557 -1.14948 1.15036 -0.629646 1.67631 1.30072 -0.483588 -1.47301 0.616497 -1.80816 0.825005 -0.71247 -0.268367 -1.47151 -1.09702 0.792242 -0.907509 -0.959118 1.2254 -0.92372 -0.276455 0.385821 -0.0656071 -1.55443 -0.580847 0.496846 -0.307069 0.948476 1.49564 -0.107658 0.184075 0.479424 0.49064 1.40276 -1.04212 -2.11172 0.246241 -0.882901 1.50339 0.652166 1.54089 -0.321578 -0.119793 -0.199063 0.475781 -0.350793 0.201273 -1.72257 0.295063 0.1076
early -1.80941 0.00684375 0.199309 0.340427 -0.028004 0.119784 1.54997 0.223878 -1.32168 -1.15251 -0.206102 -0.104958 -1.85591 -0.254167 -0.711929 0.390628 -0.572131 -0.21524 -1.5845 0.106418 0.512157 0.129733 -1.86404 0.479537 -0.0422599 -0.928944 0.679995 -0.644991 -0.700572 0.497918 0.558141 -0.684548 -0.268701 0.0828216 0.187405 1.84938 -1.83814 0.63379 -0.418028 -0.115469 -0.844905 -0.504127 -0.734815 1.38964 1.47461 -0.266281 -0.419299 -1.06258 0.421518 -1.46215 -0.394354 -0.856409 1.95985 0.692058 0.796887 -0.40545 0.198239 1.2126 -0.815688 -0.455985 0.115306 0.119591 -0.291051 -0.0905515 -0.163487 -1.8076 1.69128 -1.14598 -0.966494 -0.245966 0.609102 -0.0995733 -0.616318 -0.964416 -2.24047 0.0844303 -1.72199 0.12309 1.03461 1.52573 0.843589 0.425227 0.899229 -0.0874775 1.1278 -2.1293 0.0229973 -1.16437 0.0509086 -1.13574 -0.504532 -1.37986 0.209617 -1.76199 -1.64211 -0.0247126 -0.235513 1.10049 0.457204 0.500222 -0.618487 1.19725 1.72148 0.638436 -0.363568 -0.392828 -0.464545 1.44968 0.442168 0.0850009 -0.645421 -0.412858 0.479187 -0.116528 -0.514676 1.37022 0.275986 -1.50624 1.15604 0.0342671 1.00553 -0.423996 0.810515 0.062565 0.827481 -1.90334 -2.44375 -0.101244
working -0.473523 0.550222 -0.391118 1.21936 0.682296 1.16625 -0.918146 0.181354 -1.4737 -1.52456 0.238129 1.10796 -1.04545 -0.0130616 -0.457592 -1.58573 0.0510154 -0.808049 1.13347 0.862514 1.22013 -0.116805 0.688333 -1.09244 -1.40742 -0.506731 -0.854714 -0.448647 -1.1422 -1.95639 -0.165199 -0.311181 -1.27129 1.56224 0.766462 -0.0696906 -1.17187 1.44978 -0.683426 0.546336 -1.16811 0.972779 -0.191202 -0.785004 0.4999 -0.892352 0.234398 -0.838379 2.01312 -0.125518 -0.856881 -1.19544 0.757595 -0.444069 -1.28052 1.2693 -1.91478 1.59826 -1.35763 -1.7074 0.887087 -1.19138 0.18147 -1.26651 -0.0395433 -1.00107 2.34108 0.0421168 -0.169239 0.543396 -1.28473 -0.564298 1.50859 -1.29093 0.361502 1.62461 0.622914 1.29726 -0.582467 -0.343556 -0.619027 -0.541545 0.78299 -0.137547 -0.476738 -1.69927 0.804043 1.0423 0.0660905 0.337669 -1.52752 -0.641136 1.07995 -0.308685 -0.00906891 -1.33943 0.0566596 -1.2783 -0.730245 0.639171 -0.364263 0.562533 0.734624 -1.0067 -0.274295 0.982219 -0.249979 1.71854 0.997554 0.234746 -0.37662 -1.3458 -0.231314 -1.17135 -1.39626 0.551521 -0.301468 1.16221 -0.038369 -0.582628 0.491849 -0.564398 0.626989 -0.477645 -0.725316 1.47597 -1.20879 0.0553742
class -0.377404 -0.724592 0.841008 1.65565 0.59172 0.136781 -0.804417 1.1583 -0.282466 -2.07071 -0.930144 -0.242759 -1.06013 1.64514 0.188202 -1.79548 -0.255649 -0.25645 -0.817613 -0.322235 1.3608 0.399726 -1.10189 -1.43669 -0.458461 0.561528 1.13348 -1.17697 0.255444 -0.184152 -1.40549 -0.0163921 -0.132015 0.35193 1.14337 1.33009 -0.00984377 0.479882 0.577289 0.252154 1.0203 1.51458 -0.855481 -1.26738 0.272221 -1.60337 -0.435976 -1.80198 0.870603 0.131984 0.535505 -1.33184 1.96884 1.25981 0.549321 -0.624322 0.5905 1.22637 0.475664 -0.021817 0.374475 0.59056 0.434683 -0.0656714 0.703773 -1.2508 0.591506 0.249177 -1.39231 0.585899 -0.439737 -0.0825504 -1.02108 0.787992 -1.14816 -0.339128 -1.72853 -0.688967 0.432011 -1.17621 0.534232 -0.668401 1.79058 -1.27276 -0.0895525 -0.864467 -0.127411 0.681643 1.10607 -0.823399 -1.85982 0.113805 -0.0156553 1.57629 0.460483 0.329281 0.153603 1.53489 -0.659739 1.4256 -0.776406 -0.917267 0.0724547 0.910464 -0.288131 -1.29973 -0.0459242 1.29737 1.13668 1.52148 -0.528439 -1.14514 -0.0383047 -1.04456 -0.136314 -0.638095 0.237672 -1.46198 0.163403 -0.121691 -0.454018 -1.455 -0.946138 0.612288 -0.22203 -0.618645 -0.386704 -0.969686
radicals -1.27035 1.05285 -0.457405 1.45317 -0.745439 -0.235227 0.690792 -0.0340082 0.892482 -0.643147 0.326035 0.716142 -0.705352 -0.359724 0.926353 0.696942 0.097075 0.651365 0.128357 1.09162 1.40796 -0.209111 -1.63596 -0.719559 0.0795729 0.68471 0.166496 -0.351739 -0.148626 -0.0024271 0.0449994 0.840105 0.836062 0.644282 0.431743 1.22178 0.846354 0.95347 -0.50588 -2.49609 -0.703861 -0.0688465 -0.759904 1.78743 0.65925 -0.485793 -0.190075 -0.280319 -0.459347 -0.0573183 0.63254 -1.48234 2.65498 -0.155184 -0.102292 1.60214 -0.733482 0.178401 -1.80613 0.0987555 0.813774 -0.828099 -1.04628 -0.825322 0.656222 0.387028 -0.262167 0.49124 -1.00656 0.303507 -0.269989 1.51079 0.483828 -1.35879 -1.99848 0.908449 -1.20324 0.262407 1.97084 -0.532498 -0.627684 -0.829528 0.445456 -1.73305 1.21048 -1.35437 -0.343503 -0.75372 1.01781 0.461274 0.757921 -0.283722 -0.598148 -0.927313 0.0887714 -0.749692 -0.800285 -0.335779 -1.38826 0.503807 -0.606973 0.750459 -0.151024 -1.00096 1.57515 -0.590507 1.24043 -0.596212 1.00125 0.855233 0.389378 -1.68732 0.101196 -0.317762 -0.126492 -0.0282286 0.476482 -0.0712556 -0.561294 1.76648 -0.200955 -0.886861 -1.34262 -0.157857 1.48484 0.26159 1.41978 -2.47721
including -0.234014 0.0717815 0.636948 0.977471 0.593103 1.38572 0.884956 -1.15482 0.395426 1.7102 -0.263635 -0.851296 -0.693497 0.580797 0.888335 0.0405683 0.106234 0.574686 -1.43344 -0.0504673 -0.0676508 0.449923 -0.604607 -0.0754977 0.336834 -0.158785 -0.841877 -1.46099 0.514819 -0.905079 -1.28668 1.55772 0.306711 1.4199 -0.0995348 0.530426 1.09269 0.201404 -1.39571 -0.307742 1.03462 -0.136067 0.434216 1.46253 0.601134 -1.91523 0.36478 -1.15001 -0.137419 -0.877695 -0.674473 -1.71514 1.24787 2.0108 0.261631 1.34367 -0.747952 0.99402 -0.127688 -1.86822 1.21687 -0.671694 -1.09608 -0.809074 -0.78292 0.241037 -0.345357 -0.648335 -0.793667 0.836238 2.08853 1.03692 0.385632 0.525229 0.431555 0.0715687 -0.267585 -0.0246975 0.513675 -0.6627 -0.93209 -1.39719 0.498258 -0.153205 0.885887 -1.30483 -1.07952 -0.659744 1.28554 0.881982 -1.21645 -1.78596 0.0276616 0.498248 -1.34254 -0.0611793 0.76236 0.431126 1.34574 0.295268 1.78207 0.49273 -1.36337 -0.484858 0.715573 1.79895 0.0997801 -0.994643 0.730312 -1.25453 -0.273404 -0.0656686 1.56434 -0.958745 0.92418 -1.64772 -2.06301 -0.937982 -0.100682 -0.658891 -0.516232 -0.356492 1.14378 -0.259768 -0.503703 -2.14951 -1.06563 -0.660805
the -0.203691 0.169082 -0.990241 -0.225895 -0.188207 -0.159781 -1.39908 -0.36415 -0.459454 -0.0967478 0.165975 -0.980991 -0.329029 -1.57305 -0.382088 -1.37517 -1.27181 -0.0991282 -0.835 0.149512 -0.406874 1.39242 -1.95046 0.926547 -0.323108 0.548366 0.0224096 0.850867 -1.15333 0.136109 -0.422724 0.437368 -1.58121 -0.518178 -0.308187 0.512714 0.347172 0.519213 -1.33 0.184086 -1.87036 0.785154 -0.691686 -0.107214 2.26533 -2.84692 -0.19912 -0.739671 -1.529 -2.12179 1.38024 -1.76233 0.975019 -1.16632 -0.104571 1.49445 -0.0955073 1.23972 0.647441 1.41699 0.690255 0.821647 0.736482 -2.08876 0.829156 -0.191895 0.399712 -0.456743 -0.966187 0.0883477 0.182638 0.00266707 0.116135 -1.07103 -0.0252342 1.11717 -2.02035 1.04867 -0.159445 0.14383 0.615196 0.348033 0.250199 0.202938 1.35839 -1.36365 -0.565885 0.239686 1.76308 -0.350851 -0.922059 0.310027 -0.359531 0.58292 0.947677 -1.18071 -0.7105 -0.177851 0.470902 0.746761 1.0596 0.234784 -0.446365 0.0633947 0.449545 -0.885008 0.566915 0.494067 0.831541 0.371212 -1.32181 0.876019 1.39817 -1.45995 0.367049 -0.010692 0.05393 -0.525673 0.133445 -0.415332 -0.230473 -1.84629 1.28932 0.958938 -0.220988 0.808896 0.194005 -0.508834
diggers 0.633197 -0.31572 0.771829 0.390086 -0.156389 1.79818 -0.0694091 0.459568 -0.936114 -0.241011 0.657053 -0.0833984 -0.460991 -1.04023 -1.21085 -0.247983 0.13231 -0.235638 -2.06407 0.604356 -0.706376 0.12178 -0.480697 0.0227699 -0.109482 0.953113 0.543533 0.130527 -0.658575 -0.689905 0.498697 0.25758 0.722967 2.30955 1.07955 -1.13233 -2.05569 1.65354 -0.639705 -0.67825 0.179072 -0.814379 -0.440046 0.750255 0.676691 -1.20737 -0.527552 0.253719 -0.545852 1.33943 -0.0376431 -0.45319 0.240673 -0.0523158 1.55268 -0.0240209 -0.765069 -0.896082 -0.308316 -1.65596 0.495023 -1.07919 -0.0390355 -0.0857929 0.109487 0.138591 1.24789 0.463618 -1.73773 0.0511193 0.0112418 0.0571617 1.43162 -0.927733 -0.834794 1.39908 -0.795061 -0.487811 1.30835 -0.786257 -0.659755 0.250152 0.780876 0.481423 -0.390029 -1.37546 0.48145 0.43583 0.326295 -0.35723 -1.44426 0.287608 -0.941191 -1.65665 0.0291162 1.51025 0.553412 0.560379 -1.22593 0.0320328 0.429719 -0.0302343 1.60237 0.219949 0.488822 0.237105 -0.095971 -0.525591 0.640362 -0.240809 0.305305 1.21634 -1.20107 0.0560456 0.667787 -0.0647122 -1.23479 0.0657135 0.285214 0.517665 1.27897 -0.990649 -0.893076 -0.0200981 0.199495 -1.8409 -1.50502 -1.59987
of -1.1147 0.369121 0.731923 1.34018 -0.307872 1.03507 1.59392 -0.751465 0.420895 -0.885584 -0.100073 0.666348 -0.539534 -0.287648 0.189857 -1.38556 0.52202 0.110048 -0.347542 0.447926 1.42854 -0.25679 0.721128 -1.28039 -0.854339 -0.547945 -0.721939 -0.369583 -0.617481 1.02876 1.00449 0.508745 -1.38734 -0.18774 -0.388954 0.257187 -1.59726 1.47878 -2.21549 1.32169 -0.906016 -1.7009 0.415151 -1.09845 1.28186 -0.814634 -0.467358 0.407231 1.37762 0.509864 -1.03588 -2.05947 1.574 -0.188277 0.284122 0.64096 -1.1247 1.04383 0.218747 -0.794226 0.449671 0.0591966 -1.61119 -1.15573 -0.298634 0.0875795 0.175823 -0.71463 0.326745 0.954648 1.21424 -2.0926 -1.19411 1.38568 -1.16373 -1.28159 -0.31891 -1.27582 -0.445297 -0.43538 0.557112 -0.645248 0.285589 -0.82383 -0.236473 -1.05793 1.67696 0.6366 -0.054736 -1.13247 0.605766 -1.1336 -0.823862 1.19909 -0.200616 -1.22815 0.36226 -0.486927 0.135127 1.87621 0.578125 0.773089 0.918271 1.40224 0.190331 0.186865 0.931907 1.47534 0.658162 0.855588 0.948681 0.849465 0.385109 -0.296795 1.33759 -0.0305337 1.09102 -0.143092 1.887 0.416549 0.614726 -1.57933 -1.0128 -0.943497 0.661965 -1.37692 -0.396609 -1.04225
the -0.574444 -0.276371 1.11211 1.57156 0.584009 1.61503 0.676206 0.500087 -0.680657 -0.551035 -0.858316 -1.0155 0.851082 0.319338 0.168805 -0.652807 0.4118 -0.136707 -0.400934 0.597571 0.0453327 -0.667134 0.822353 0.359209 0.548038 0.951792 0.411354 0.00493693 -0.152977 -1.73676 -0.288129 1.09601 -1.34294 2.05955 0.427387 2.13399 0.218985 0.003582 -1.58608 1.21597 -1.16794 -0.564106 -1.41919 0.325111 1.25875 -2.21552 -0.529166 0.301788 0.518555 -1.75456 -1.37433 -0.689051 0.0890413 -0.693886 0.0558521 -1.3866 -0.185528 1.38558 -0.696912 0.60999 0.652535 -0.517909 -0.0747373 -0.124517 1.63214 -0.36471 1.32344 0.594349 -0.318464 -1.19828 0.749269 0.393403 0.0120731 -0.899774 -0.174789 0.489246 0.620165 0.873441 0.360612 -0.318583 0.298981 1.01393 1.70336 -0.268948 -0.569466 0.330504 0.739414 -1.38245 0.878927 -1.08434 0.185533 -0.955726 -0.0994773 0.589182 0.133352 -0.674573 -0.170105 0.0746723 0.0502004 -0.510771 0.620994 0.515594 0.362126 0.90916 -0.159196 1.30079 0.179218 1.22754 1.44641 -0.577699 1.00916 0.331205 0.291054 0.253638 -1.17788 -0.538362 -0.594338 -0.556571 -0.495635 -0.124488 1.1595 -0.155073 -0.908822 -0.718742 -0.686267 -0.45771 0.476128 -1.7638
english -1.62935 0.53841 -0.207559 2.0529 1.00128 0.58083 -0.580287 -0.558175 -1.34832 -1.1912 0.277146 -0.655401 1.66957 0.667361 0.0940776 0.444424 -0.227016 -0.380424 -1.16391 0.780057 0.847676 -1.0543 -1.27645 -0.319736 -0.584806 -0.550431 -0.315882 1.24244 -0.705609 -1.38458 1.51904 -0.494424 -1.23003 0.292005 -0.584551 0.79189 0.582603 1.97445 -0.694546 -0.353367 0.994417 -0.963419 0.600349 1.00795 2.07407 -1.97417 -2.12641 1.47374 0.741085 -1.43236 0.323844 -0.666041 1.41271 -0.472147 -0.143383 -0.125565 -0.379885 0.0967751 -0.21241 -1.05111 0.669435 0.173107 -0.582024 0.0490978 1.41006 -0.0519243 0.607098 0.442042 -0.843376 0.424909 -1.01314 -1.14547 0.0680103 -0.227834 -1.169 0.841132 -0.531194 1.44597 0.424639 0.228199 1.42992 0.245806 0.458873 1.13046 0.693627 -0.404183 -0.465832 -1.92636 0.316815 -0.66546 -0.333667 -0.511094 -0.730011 0.797625 -0.0294939 1.06426 -0.00410131 -0.371835 1.54119 -0.195894 0.382576 0.933497 -1.13856 0.330046 -0.216365 1.40491 0.708777 -0.0847883 1.57943 0.868546 -1.65136 0.164726 1.4916 -0.131444 0.356773 -1.15207 -0.673123 0.247877 -0.465457 1.41673 -0.737532 -0.020369 -0.134094 0.366801 0.851363 -1.18732 -0.370039 -1.44641
revolution 0.617707 -0.22092 -0.0222607 2.18174 -0.729312 -0.518988 0.19006 0.12379 -1.1238 0.0439756 -0.777334 1.46478 0.680295 -1.69951 -1.11914 0.00100929 1.15829 0.313343 -1.39972 -0.170719 0.219995 0.327989 -0.55026 -0.0192011 -0.84811 0.371505 0.323905 -0.714634 0.243867 -0.0291714 -0.0315345 0.321899 -2.22103 0.608115 1.17779 0.46095 0.943265 0.334826 1.22743 0.770677 0.463021 0.166498 -1.19839 0.205019 1.79219 -0.759016 -1.05461 -0.0996134 0.0146586 -1.49957 0.0307626 0.979282 1.18148 0.75895 0.862636 -0.164383 0.52503 1.63177 -0.33677 0.474653 1.59843 -0.205483 -0.797717 -1.27116 -0.159601 -0.117765 0.150693 -1.37708 0.829663 -0.569521 -1.32864 1.47639 0.811228 -0.185467 -1.48077 -1.03495 0.302929 0.979697 -0.0114444 0.533694 1.11319 1.3104 1.0436 1.30806 -0.495386 1.10114 -0.501345 0.835298 2.31798 -1.10779 -0.244505 -0.960034 0.566921 -0.373135 0.59339 -0.76287 -1.01783 0.35593 1.1703 0.226615 1.5477 -1.11045 1.37422 -0.0714045 0.392084 0.208409 -0.934796 -0.297062 0.798386 -0.512943 1.24428 -0.630515 0.359499 -0.939888 0.169603 1.42431 -1.37879 -0.361864 0.625703 1.31115 -0.992636 -0.255258 -1.18957 -1.67539 0.445475 1.02153 -0.548651 -0.648669
and -0.565342 1.05444 -0.0187382 0.87168 -0.0321501 0.659242 -1.06818 -0.403135 -0.882515 -0.356232 -1.85025 -0.802235 0.318723 0.443814 -1.56869 -1.24375 -1.02451 -1.02391 0.110306 0.305824 1.09285 -1.65309 1.15242 0.804059 -0.784226 -0.171654 0.312245 0.107707 -0.922213 -0.453846 0.043582 0.625093 -1.29817 1.46252 0.154825 -1.66421 -0.733319 -0.735071 0.918874 0.18136 0.082598 1.34982 -1.01629 1.40451 0.773348 -0.347348 -0.0947405 -0.174192 -0.120388 0.067377 0.396978 -1.18819 0.269398 1.1186 -0.49447 0.944365 0.126308 1.86239 -0.832615 -0.493169 1.31893 0.766237 1.38078 0.583296 1.76754 -0.289776 0.962024 1.18573 -0.836253 0.717462 0.647246 -1.05147 -0.405062 1.13541 0.643343 -0.0350426 -0.870677 -0.227771 0.406084 -0.770736 -1.20603 1.24852 0.93382 -1.44401 0.750703 -0.727743 0.757547 -0.830929 0.929265 -0.794317 -0.626615 0.0153431 0.792407 0.643126 -0.0926012 -0.793523 -0.59822 0.742003 -1.11147 0.572674 -0.11608 -0.131549 -0.0313918 1.2284 0.913068 2.25949 0.126038 -0.130062 -0.0897648 0.530006 -2.02299 1.62179 -0.326366 -0.323328 0.25721 -0.645724 -1.05485 0.299861 -0.575089 1.14608 0.112163 0.31549 0.489815 -1.72877 0.951123 -0.567908 0.145507 -0.758778
the -1.24703 -0.351491 -0.408438 0.380391 1.16799 -0.718474 0.955958 0.123702 0.290572 -0.320754 0.441055 -0.893629 -1.33634 -0.415105 -1.28128 0.115471 0.872743 -0.710495 0.100622 0.54477 -0.974696 -0.30041 -1.11976 -0.788519 0.919181 -0.411039 0.118648 -0.840952 -1.58965 -1.41588 -0.093838 0.183812 -0.700537 0.348646 1.07265 0.67321 0.735921 0.317036 -1.41908 1.57157 -0.688102 -0.197715 0.98851 0.651152 1.12392 -1.97728 0.914407 0.420571 0.297682 -1.05227 -0.639212 0.0443077 -0.444427 -0.383846 0.565934 -1.60288 -0.1999 0.228363 -0.932781 0.190748 -0.745832 -0.0410815 -0.410017 0.0301861 -0.378032 -0.339429 0.867329 -0.129315 -0.552856 1.94121 1.37963 -0.471638 0.603755 0.720293 1.46045 0.827359 -1.66051 -1.06769 0.229664 -1.05849 -1.49711 0.932045 2.20562 -0.152781 -0.0346416 0.693067 2.11673 -0.445323 0.236071 0.500726 -0.339992 -1.11508 -1.27653 0.312941 -0.713498 -0.912295 1.03267 -0.1378 -0.325135 1.02926 0.671044 0.438477 1.61376 0.463661 1.71456 -0.771952 0.211323 0.756903 0.590565 2.51209 -0.0541485 0.282533 0.359909 -0.358083 0.626341 -0.748969 0.0343632 -1.69878 0.688346 1.77754 -0.145889 -0.430668 0.978407 0.0579591 0.0205628 -1.52304 -0.834689 -1.76715
sans 0.432366 -0.371511 -0.450186 0.930085 0.515485 0.607866 -0.514659 0.217019 0.93342 0.130869 0.334214 -0.31429 -0.643886 -0.834986 0.815277 1.03777 0.0875943 -0.122469 -0.322039 1.01273 -0.0256972 -0.0563977 -0.0402806 -0.373111 0.746864 -0.67362 0.830548 -0.350289 -0.664451 -0.66877 0.0918722 -0.872535 -1.08596 1.04986 1.18922 0.95071 -0.662988 -0.824661 -1.81782 -0.491601 -1.00648 -1.41846 1.44055 0.967496 -0.483905 -1.38851 -1.88043 -0.245507 1.45411 -2.04778 -0.0168832 -0.568637 0.767776 0.171304 -0.113421 0.440786 0.213497 -1.26809 -1.39278 0.21285 1.48116 0.852597 -0.563001 0.138989 0.0273817 0.0770066 -1.20364 0.013485 0.383837 -0.263676 -0.743112 -1.36802 -0.728867 -0.260851 -1.67234 -0.827991 -0.723397 -1.39514 1.76664 0.636446 -0.378854 -0.439702 1.30784 0.322389 0.733507 0.156212 0.705761 1.60672 0.994083 -1.56318 -0.616818 0.556599 1.58031 -0.680153 1.13354 -0.169783 0.12823 -0.0265965 -2.05259 -0.44347 -0.350974 -0.696282 -0.545429 0.118749 -0.746132 2.03845 0.253025 -0.570689 0.893335 1.25715 -0.805273 0.826862 -1.54235 -2.03184 0.58798 0.36952 -0.335119 -1.48761 1.49345 1.11064 0.683421 -0.868468 -0.0425968 -0.284889 -0.655746 0.982787 -1.49049 -0.952978
culottes -0.994616 0.0131409 0.350481 0.135453 -0.351196 0.278951 0.993316 0.603522 0.0423913 0.128407 -0.252833 -0.471389 -0.453216 -0.2489 1.29808 0.017114 -0.655119 0.0997889 0.301533 0.772308 0.597794 -0.18164 0.850478 -0.263903 0.602959 1.67326 0.754157 -1.38542 -0.374548 -0.380585 -0.996274 0.620353 -0.106801 1.84923 0.133225 0.632551 -0.988447 0.41985 -0.933097 0.993228 0.675286 0.841705 -0.535777 -0.148928 1.39559 -2.471 -1.73232 0.148517 1.08739 -1.5569 -0.785517 0.656485 0.528337 0.555452 0.919948 -0.143039 -1.45469 0.040113 -0.0428758 -1.44663 0.597069 -0.209624 -0.0261729 -1.67387 -0.301366 -1.28556 0.389144 -0.213986 -1.54137 -0.363528 0.0254975 0.112958 0.618965 0.139514 -0.55508 0.425311 -0.410199 0.444969 0.213036 -1.00854 -0.514332 0.373838 -0.399329 -0.948465 -0.0127067 -0.927697 -0.770356 0.753977 -0.366802 -0.057734 -0.947252 1.01467 -0.631974 -0.12202 -0.904923 -1.59513 -0.621078 1.58827 0.505314 1.75456 0.500826 -0.0113606 -0.108468 -0.582598 0.577007 0.466473 -1.44293 -0.149034 -0.239538 1.6166 -0.640773 1.03922 1.40044 -0.894591 -0.280377 -1.24989 1.36881 0.914793 1.57398 0.398521 -0.419453 -1.72077 -0.408444 0.0526296 -0.485111 0.548906 0.952217 0.0743105
of -0.294498 0.505489 -0.474919 1.6756 0.759877 0.550028 -0.306252 -0.518553 0.876866 0.815014 -0.713443 -0.106377 -0.781786 0.0197372 0.349318 -0.684626 0.101863 -1.13008 -0.0647812 1.00672 0.593337 -0.600551 0.894533 0.0541669 -1.1721 -1.30899 0.466964 1.08471 0.197044 -0.358254 -0.13304 -0.0592605 -0.192256 1.63977 0.630602 0.527043 -0.160389 0.342795 0.10125 -0.151568 -0.202565 -0.465612 0.84232 -0.213079 0.548346 0.088883 -1.00717 -1.47783 -0.420897 -0.63886 -0.603776 -0.625288 0.0117592 -1.39855 0.340453 -0.12066 0.597586 0.799855 -0.902453 0.368775 1.1784 -0.674331 -0.248629 1.0015 0.359838 -1.27392 -1.00126 -0.159728 -0.584568 0.106667 -2.08016 0.699255 0.851576 -1.58445 -0.649614 1.8234 0.124957 -0.75035 0.510085 -0.723807 -0.476016 1.36631 -0.4911 -1.16607 1.43469 -1.13188 0.95631 -1.23109 1.74018 -0.733304 -0.499628 -0.458063 -0.593031 -0.824605 -1.66564 1.34721 -1.75211 0.32697 -0.0146863 0.537316 1.04078 -0.510386 -0.416385 1.11511 -0.218487 0.688904 -0.416472 1.09145 0.184582 0.200857 0.681774 -0.821578 0.0708236 -0.475938 1.79789 0.686319 -0.122044 -1.21728 -0.65573 -0.742787 0.182776 -0.575528 -0.545831 0.767701 -0.144471 -0.648928 -0.44591 0.29584
